PCA_Vector_0,PCA_Vector_1,PCA_Vector_2,PCA_Vector_3,PCA_Vector_4,PCA_Vector_5,PCA_Vector_6,PCA_Vector_7,PCA_Vector_8,PCA_Vector_9,Wrist_Velocity,Wrist_Direction,Wrist_Variance_X,Wrist_Variance_Y,Wrist_Variance_Z,Label
-1.99383407112271e-17,-2.3188202413057067e-17,5.7092165032148085e-18,1.115493070628124e-17,-1.7586033719277537e-17,-2.929267236649444e-17,2.5867142464565553e-17,4.716142209530617e-17,-5.4501059080689054e-17,1.8774538885571773e-18,0.00921925481190313,-0.2009059950204952,0.0007703698995067607,0.0014120507274789683,9.931377258750658e-14,Click with one finger
1.4945309946877107e-17,1.2810265668751807e-17,1.708035422500241e-17,2.135044278125301e-18,-4.7104414386139453e-17,2.5620531337503614e-17,7.005614037598644e-18,-1.351082707251167e-18,3.3093186310942166e-17,1.3077146203517469e-17,0.016436617427901663,0.8339534540319594,0.0006803190315813218,0.00041701131516657503,4.0535965249556424e-15,Click with one finger
8.540177112501205e-18,1.708035422500241e-17,-1.9248758569973418e-17,-5.584475189971491e-17,-4.2700885562506023e-17,-4.2167124492974694e-17,-1.2810265668751807e-17,2.195092398447575e-17,-6.488533001490173e-18,-7.706175441358509e-18,0.011118423521557676,-0.4452222020487707,0.00022563688000545547,0.0021115562278623307,9.48710126748818e-15,Click with one finger
-3.775389092262251e-17,2.2961430736565737e-17,-1.816728585750256e-17,1.2994655856408083e-17,6.8127321965634605e-18,2.0690520004377918e-17,1.7757260308635316e-17,-2.154211152894835e-17,-1.1417634514610985e-17,-2.706168622523819e-17,0.006863457706922609,-0.03933952522108735,0.0002246823781987235,0.0015149471068435449,1.4736587954209292e-14,Click with one finger
4.099285014000578e-17,5.124106267500723e-18,-1.5799327658127227e-17,3.5228230589067465e-17,-1.3237274524376867e-17,3.75767792950053e-17,2.9890619893754216e-18,1.2810265668751807e-17,-3.031762874937927e-17,3.704301822547397e-17,0.002905561034803286,-0.0361274784390236,1.219215378944807e-05,0.0010594393234526797,9.342346403217647e-15,Click with one finger
1.701148182893385e-17,1.3318199589757423e-17,9.40108206335818e-18,-3.626131653009584e-17,2.2495446365892787e-17,-8.169987983632705e-18,3.016180495327416e-17,-7.918173285507039e-18,-4.53266456626198e-18,-2.4034313965549635e-17,0.01051475223510275,-0.14753915010166946,0.00012853837143953894,0.00024041607395463758,1.1596087946625163e-14,Click with one finger
2.2898349882893852e-17,-2.3776553642607113e-17,1.691355389077387e-17,1.3509159069169385e-17,9.410874857174178e-18,-9.118140270603092e-18,-5.197665214895508e-17,8.998878031629687e-18,3.8424124992886275e-17,-2.0816681711721685e-17,0.005663841653971572,-0.11718693519765074,2.1876700977621067e-05,0.00029254232987599774,9.748354043072227e-15,Click with one finger
-2.1912296538654406e-17,-8.764918615461762e-18,4.0902953538821554e-17,-2.3007911365587126e-17,-2.01775730626776e-17,1.6970617163009947e-17,8.125809966417675e-18,-6.391086490440868e-18,3.131632380316026e-17,1.653978945762755e-17,0.01872215910044934,-0.28810522412060946,0.0004972814045274529,0.002162702948809553,4.9370309349854816e-14,Click with two fingers
6.938893903907228e-18,4.13442428441139e-17,6.3606527452482924e-18,2.920117851227625e-17,-1.4166908387143924e-17,-1.2721305490496585e-17,7.878535786728e-18,2.0238440553062748e-17,-5.175258369997474e-17,1.951563910473908e-17,0.005059079319944986,0.19512952613021808,5.1857193843938285e-05,0.0006893134895604664,1.0080942796167346e-13,Click with two fingers
3.7007434154171884e-18,2.1741867565575982e-17,4.278984574076124e-18,-1.61907524424502e-18,2.2898349882893852e-17,3.348016308635238e-17,1.734723475976807e-17,-2.885423381708089e-17,3.764349942869671e-17,1.347482600037401e-17,0.026387981583914016,-0.28966874770557827,0.00023274353915161175,0.003504524992120142,7.378057189769763e-15,Click with two fingers
2.821816854255606e-17,3.7470027081099036e-17,-7.28583859910259e-18,-2.2262284608369025e-17,7.083454193571962e-18,-4.4488429144321863e-17,-1.505234016134042e-17,-2.3575976240697293e-17,-3.8496405137718644e-17,2.6237692574149207e-18,0.004989892792147295,0.11403104004420596,0.0004103104118769082,0.00031038262955202965,5.3242452630102455e-14,Click with two fingers
4.7580986769649563e-17,-8.723180907769087e-18,8.128418573148468e-18,3.424839776857068e-17,2.0816681711721684e-18,-1.0513663352616578e-17,2.2588577833612282e-17,-3.0407224357479176e-17,-3.493609171797577e-17,-5.1917795459591584e-18,0.010441270638217034,-0.36733420879149503,6.0112957111740127e-05,0.00024932999996596107,3.6813921430551287e-14,Click with two fingers
2.0816681711721685e-17,1.3877787807814457e-17,-6.938893903907228e-18,0.0,-3.469446951953614e-18,-4.336808689942018e-19,-4.336808689942018e-18,-8.673617379884035e-19,-3.469446951953614e-18,1.0842021724855044e-18,0.03059170032382551,0.48119515203476965,0.01147832423803406,0.0019746152530833666,4.453534066008592e-14,Click with two fingers
3.7848512203130334e-17,2.1342355492320717e-17,-3.995120732552647e-17,-3.048907927474388e-17,3.522014330013518e-17,2.943116079128833e-17,-2.6914497566670462e-17,-1.938422065958932e-18,2.0225298708547772e-17,-1.7386660293313e-17,0.0043354999988773416,0.17390617847313813,6.771290440165742e-06,0.00017833879791515306,2.0114363237004286e-15,Click with two fingers
1.1354553660939102e-17,3.658689512969266e-17,-3.690229939805208e-17,-1.4784575079347788e-18,-1.1315128127394173e-17,8.969308881470992e-18,6.386936434278244e-18,4.932134246470422e-17,-1.6992404957863723e-17,-5.928614606818463e-18,0.015555602958252314,-0.3708544103743154,0.0006771735657586723,0.008919923503779218,1.085528768462319e-14,Double click with one finger
-1.9081958235744878e-17,3.847932073984918e-17,-8.31878757797969e-18,-4.731064025391292e-18,-1.368066014008982e-17,-2.6188410657218047e-17,-3.2534689510028084e-17,-2.3832735027908633e-17,7.042385929462663e-18,-3.3117448177739046e-18,0.012569585959090067,0.17309503145575886,0.0002580053213375424,0.0009581549677653525,2.5028120091070798e-14,Double click with one finger
-6.4636271981601576e-18,-5.5321044548959e-17,-1.5208534583906253e-17,-3.0322015826663095e-17,5.703200468964845e-19,-9.172647420918459e-18,2.3288068581606452e-17,-1.1910257906444358e-17,-2.6139668816088873e-19,1.910572157103223e-17,0.002882108343585004,-0.3848530629346785,3.1122607805856024e-05,0.00011650073794065464,1.5658445162929314e-14,Double click with one finger
-1.3877787807814457e-17,-3.469446951953614e-18,-3.469446951953614e-18,-4.336808689942018e-18,-8.673617379884035e-19,1.0842021724855044e-19,-1.5178830414797062e-18,2.710505431213761e-19,-1.6263032587282567e-18,4.336808689942018e-19,0.014717545725510503,-0.11023546236103321,0.00029771619846086813,0.0009489796419771789,1.1404449116940263e-15,Double click with one finger
-3.0839528461809902e-18,-1.4648776019359705e-17,1.1299795975460036e-17,4.3849954531635955e-18,1.2769492253718163e-17,5.637851296924623e-18,8.191749747668256e-18,-3.529078071440317e-17,-2.6213599192538418e-17,-1.901871310901656e-18,0.007159542603495655,0.6000296630201498,0.0001104216352572444,0.0007895451697717734,2.187365864856418e-15,Double click with one finger
-1.9258970835334348e-17,-1.699320956058913e-18,-1.4727448285843914e-17,-4.814742708833587e-18,3.96508223080413e-18,-3.936760214869815e-17,2.1878757309258505e-17,-3.8110812691612915e-17,7.080503983578804e-20,4.2624633981144406e-17,0.01624792158180122,0.0808583653220079,0.0002120907764815753,0.0035759973676074844,5.488417186323973e-14,Double click with one finger
3.047671047990626e-17,-2.911614304776759e-17,1.469412826709766e-17,-9.523972024970706e-18,-3.4014185803466804e-18,1.829963196226514e-17,-2.493239819394117e-17,-3.6956412875466686e-17,6.241603094936159e-18,2.4634774068160834e-17,0.007303365626012846,0.2091894055616411,6.962616731251844e-05,0.00020774663473864822,4.865521223476493e-14,Double click with two fingers
-4.8315261256835515e-17,-5.396917480816733e-18,3.0968026497067444e-17,1.02798428206033e-18,-1.4970021107503558e-17,3.803541843623222e-17,5.268419445559192e-17,-8.994862468027889e-18,8.304185528518605e-18,3.498359009886561e-17,0.017261423194514524,-0.07515411830164181,0.00024742098489930446,0.002087476988017434,1.2071273283799155e-13,Double click with two fingers
-6.392193172084235e-17,-1.0934014636459875e-17,-1.7504936893947782e-17,1.850371707708594e-17,3.0909618299223105e-17,-8.568482623764229e-18,1.6611291466929426e-17,-3.8163916471489756e-17,-3.4904739031775755e-17,1.0934014636459875e-17,0.017005439683416744,0.218244534080743,0.0002628420256797711,0.0006998172342311588,5.4386097718699015e-14,Double click with two fingers
1.850371707708594e-17,2.544261098099317e-17,1.7732728865540693e-17,5.396917480816733e-18,-4.452456921673805e-17,2.6984587404083666e-17,-4.7704895589362195e-17,2.409338161078899e-19,1.3925974571036036e-17,4.163336342344337e-17,0.024557742830505037,-0.2055192203066756,0.00045741138245940845,0.001196176529046228,8.161694752373332e-14,Double click with two fingers
-2.1587669923266933e-17,6.810395868649687e-18,-2.749857954511383e-17,2.955454810923449e-18,7.003142921536e-18,8.448745818183338e-18,1.2972278215608971e-17,4.6901782869002564e-17,2.6438470754239115e-17,-8.930613450399118e-18,0.011402477501712015,-0.005023409668037451,6.721941688112055e-05,0.0012488085207706275,1.043136131155009e-13,Double click with two fingers
-5.551115123125783e-18,3.441691376337985e-17,8.326672684688674e-18,1.4085954624931672e-17,-5.0653925498522766e-17,-8.049116928532384e-18,-2.157996004115148e-17,-1.0061396160665481e-17,5.204170427930421e-19,-1.870031907102998e-17,0.013784111044995639,0.1982490090529447,0.018289560315163066,0.007572178961940056,4.2220563133257686e-14,Double click with two fingers
-4.625929269271486e-17,-7.709882115452476e-18,1.0793834961633467e-17,-1.5419764230904951e-18,-4.70302809042601e-17,-1.426328191358708e-17,2.3129646346357427e-18,1.2528558437610274e-17,1.5805258336677575e-17,4.0091387000352874e-17,0.005869210121788546,-0.4350909272062431,0.0018179567217376528,0.0006713692243770123,1.5102745691926597e-13,Double click with two fingers
1.4802973661668753e-16,-4.018776052679603e-17,-1.6241456304261038e-16,0.0,0.0,0.0,0.0,0.0,0.0,0.0,0.10288560668377138,-1.1427504930384267,0.0013628557317354585,0.007342799119348185,5.2561589422497565e-14,Non-gesture
2.7755575615628914e-17,1.214306433183765e-17,1.5612511283791264e-17,-8.673617379884035e-18,-3.469446951953614e-18,-8.673617379884035e-18,5.204170427930421e-18,7.589415207398531e-19,-5.7462715141731735e-18,-1.3010426069826053e-18,0.0446757074038639,-0.1893813100074593,0.0005113154891729366,0.00412514287911768,2.0928425566626335e-14,Non-gesture
-9.942295742911849e-18,-6.628197161941233e-18,-1.5327705936989103e-17,-3.5626559745434126e-17,-2.8998362583492894e-18,-9.450359234799024e-18,3.593725648740012e-17,9.295010863816026e-18,1.3411742694865463e-17,1.1961824565690819e-17,0.0030964193597933826,0.05223411072578453,0.0005520973415610121,0.0001811195506549285,6.483544493710649e-15,Non-gesture
9.227827737144159e-17,-5.767392335715099e-18,1.7302177007145296e-17,1.144466916618465e-17,1.0092936587501423e-17,5.046468293750712e-18,2.234864530089601e-17,5.172630001094479e-17,-7.209240419643874e-19,-2.884822611673119e-17,0.008350809622116553,0.23863895392573914,0.002868054001876876,0.0024492097604122335,1.1611071926000229e-14,Non-gesture
2.7755575615628914e-17,5.204170427930421e-18,5.637851296924623e-18,1.735962877697878e-17,0.0,0.0,0.0,0.0,0.0,0.0,0.08411121070549565,1.6062638553697308,1.222429542346859e-05,0.009046822429520374,2.510246343017263e-14,Non-gesture
0.0,-2.7755575615628915e-18,3.046472579412707e-17,-3.3068166260807885e-18,-1.6893391045652293e-16,0.0,0.0,0.0,0.0,0.0,0.03486984885533126,0.7677350119981365,5.002733107502877e-05,0.0015335984578874217,7.726429822041679e-15,Non-gesture
2.2204460492503132e-17,-4.0245584642661923e-17,1.1449174941446926e-17,3.469446951953614e-18,-6.505213034913027e-17,1.0018028073766062e-17,1.4121733296623695e-17,2.542454094478508e-17,-1.391573488385145e-17,-1.6334530097962151e-16,0.01948320169259106,-0.4828259026903332,0.0001734576260409071,0.000852661831974757,1.5811035148585676e-14,Non-gesture
0.0,2.544261098099317e-17,-2.915299174905468e-17,1.6660573383860584e-17,5.981181984878366e-18,-1.0245710529988017e-17,-1.957587255876605e-17,2.5664368912322944e-17,2.2501669578585397e-16,0.0,0.02276384847123893,1.1854705059489135,0.002107598568095565,0.0001710677717600318,2.4617706170467316e-14,Non-gesture
9.654113257610057e-19,-4.633974363652827e-17,-1.0619524583371063e-17,-6.999232111767291e-18,-6.800116025829084e-17,2.2144122284643066e-17,-3.30200842514194e-17,5.265262863388735e-17,-1.16151050130621e-18,-3.427964434049821e-18,0.003072974348244244,0.1596517994487263,0.00022740955671967094,0.00014556995164812645,2.0106899575716067e-14,Non-gesture
-2.2204460492503132e-17,-1.8041124150158794e-17,2.0816681711721684e-18,-8.847089727481716e-18,1.1296286681709622e-16,0.0,0.0,0.0,0.0,0.0,0.020977207383414343,-1.229393039473154,0.0002654399904503535,0.00035080070412618625,1.4829922665048233e-14,Non-gesture
-1.1102230246251565e-16,-1.3877787807814457e-17,3.122502256758253e-17,1.3010426069826053e-18,-6.505213034913027e-19,5.583641188300348e-18,7.623296525288703e-18,-1.0741584738677024e-16,0.0,0.0,0.03733581247746577,0.10322572068131684,2.5018052728975615e-05,0.003362235014975512,4.2341197136745603e-14,Non-gesture
-5.819717467793159e-17,2.462188159450952e-17,4.1969116354277594e-17,-1.1303682004752099e-17,-1.9809422919219024e-17,3.0466081046842675e-17,2.1963837558738607e-17,4.325616925580877e-17,-4.163336342344337e-17,-2.3450243762952604e-18,0.05293503296775998,0.07879135488993866,0.009776270931928326,0.013155249322766066,7.158682758015611e-15,Non-gesture
1.1686558153949016e-17,0.0,5.843279076974508e-18,-1.1686558153949016e-17,2.556434596176347e-18,1.1686558153949016e-17,3.652049423109067e-18,-5.843279076974508e-18,1.2599570509726284e-17,-1.460819769243627e-18,0.023763344899316634,0.0677382120043565,0.010265850619351855,0.009590478679606022,4.62786881855508e-14,Non-gesture
-3.7475882687768996e-17,2.061173547827295e-17,-2.810691201582675e-17,-6.5582794703595745e-18,1.2179661873524925e-17,-1.475612880830904e-17,2.342242667985562e-19,9.837419205539362e-18,2.0377511211474393e-17,-1.0305867739136475e-17,0.006441356490252034,0.036275548453963885,0.0009501872708996068,0.0003915673019113846,4.037960772066371e-14,Non-gesture
-6.223977562292544e-17,-1.9344795126044396e-17,4.2053902447922597e-19,7.990241465105294e-18,1.5980482930210588e-17,-3.096218567728301e-17,-1.035577347780094e-17,-8.226794666374858e-18,-3.535156174528493e-17,-3.505751297426235e-17,0.008738167876485481,0.7653220965912728,0.000693777143231409,0.0008243714334923136,2.648564078264198e-14,Non-gesture
-1.3877787807814457e-17,8.673617379884035e-18,4.336808689942018e-18,2.4153418115357503e-17,0.0,0.0,0.0,0.0,0.0,0.0,0.05924325780220959,-0.5884627760740451,0.00017489189788914838,0.001743405498254802,1.3597524927690098e-14,Non-gesture
6.505213034913027e-19,-7.969026294633246e-19,0.0,0.0,0.0,0.0,0.0,0.0,0.0,0.0,0.00033648079128713977,1.209123057512676,3.543837445718623e-09,2.476099325576797e-08,2.4818329860294096e-17,Non-gesture
4.0371746350005693e-17,3.027880976250427e-17,-2.523234146875356e-18,1.2616170734376778e-17,-1.261617073437678e-18,-5.677276830469551e-18,2.3891873328226026e-17,-9.146723782423164e-18,4.0292895282915836e-17,-5.926643330141216e-17,0.033944810573700294,-0.3042722492382243,0.00992339962433032,0.003369064097026413,4.292668859224966e-14,Non-gesture
0.0,5.551115123125783e-17,-1.431146867680866e-17,-2.56701929648951e-17,0.0,0.0,0.0,0.0,0.0,0.0,0.06454998212252681,0.6663958252254184,0.0036027838927967792,0.0008105907062716522,7.626660638998512e-14,Non-gesture
-5.465713352000771e-17,-2.7328566760003855e-17,1.0248212535001446e-17,2.3912495915003373e-17,-1.0248212535001446e-17,-5.124106267500723e-18,-6.084876192657108e-18,1.5799327658127227e-17,1.6653345369377347e-17,1.5959455978986624e-17,0.037359166823236215,0.012197249235716526,0.024432880244003134,0.050057112308611484,1.4265289170851773e-13,Non-gesture
-1.2688263138573217e-16,-7.434529182757744e-18,-1.1957201102268707e-17,-5.520137918197626e-17,-1.4373423086664974e-17,-1.308641702566544e-17,2.435704427708771e-16,0.0,0.0,0.0,0.0373267052678556,0.3265127531691645,1.781422116737048e-05,0.010933482844422584,1.2236622106947237e-13,Non-gesture
1.794299837778031e-17,2.5793060168059192e-17,1.0092936587501423e-17,2.0466232524655663e-17,-2.2428747972225387e-18,6.308085367188389e-18,1.7101920328821855e-17,1.4158147157467273e-17,1.2756350409203188e-17,-6.938893903907228e-18,0.00528538294189052,0.12609182961105844,0.00040133617345788854,0.0005995653685624846,2.8837049136556672e-15,Non-gesture
0.0,9.71445146547012e-17,5.204170427930421e-18,-2.312964634635743e-17,8.0953762212251e-18,2.023844055306275e-18,7.228014483236697e-18,3.758567531283082e-18,-1.142026288351398e-17,-2.5587171270657905e-17,0.01697885772678887,0.39328258745201794,0.014135762407876727,0.0004669610138719641,4.513276802772921e-14,Non-gesture
-4.163336342344337e-17,7.806255641895632e-18,1.352363241265304e-16,0.0,0.0,0.0,0.0,0.0,0.0,0.0,0.013003995592182911,2.066313472550905,5.837083704434635e-06,0.00013923397522574987,1.2853831023166914e-14,Non-gesture
0.0,-1.7968927566187505e-17,6.658129410685548e-18,7.700968956937501e-18,3.016212841467188e-17,1.0428395462519533e-17,9.626211196171877e-19,2.1658975191386724e-17,-2.89588520151504e-17,-5.6152898644335955e-18,0.011915987852582162,0.07246965396861342,0.03160321217106119,0.0014713420846662873,2.5074261432336258e-14,Non-gesture
2.2489450777842176e-17,1.9577593514595396e-17,2.6392578598789992e-17,-5.929037023249302e-17,-2.577303450022685e-17,-5.105043372160318e-17,-7.038020959677331e-17,2.3635607360183997e-17,1.6882576685845713e-17,-1.0284432036148214e-17,0.00599192375400887,-0.16861973598063743,0.0004351302112626375,0.002126435313800078,1.4469779350870016e-14,Non-gesture
-1.3877787807814457e-17,-4.787836793695988e-17,3.0010716134398764e-17,5.117434254131581e-17,-1.9997457735123919e-16,0.0,0.0,0.0,0.0,0.0,0.022993236446862728,0.1837798245518459,8.754241288301047e-05,0.00010198792024226577,3.2529598654916835e-15,Non-gesture
-2.523234146875356e-18,6.308085367188389e-18,-9.462128050782583e-18,-2.684878834409558e-17,-9.462128050782583e-18,6.5052130349130266e-18,6.224306108405418e-18,1.3759511207179674e-17,-2.6250629077343637e-17,-3.8407861960298995e-17,0.008812528719395588,1.6962611584525955,0.0007623829787198513,0.0011039630660131699,2.898509981180857e-14,Non-gesture
1.959217102279688e-17,1.3061447348531253e-17,6.040919398695704e-17,-2.0204426367259282e-17,-5.274324686150072e-17,2.7755575615628914e-17,2.0316035414426907e-17,3.527164773488872e-17,8.290957789595034e-18,-4.212444323098092e-18,0.030988192978776523,0.9134405121161353,0.0011087379152199906,0.005393168114447348,8.845910963964092e-14,Non-gesture
-3.3306690738754695e-17,7.979727989493312e-18,-3.95516952522712e-17,-1.0928757898653884e-17,-1.6272498359991443e-16,0.0,0.0,0.0,0.0,0.0,0.023002654915070073,-0.6630790252350863,5.76456020873195e-06,0.00037816659926249936,2.682011770542328e-15,Non-gesture
-4.2920993220044713e-17,4.306406319744486e-17,-6.295079005606558e-18,2.4187768054212697e-17,1.280476297731334e-17,-1.1839040629862332e-17,-4.679282448343624e-17,2.9865857782281114e-18,-2.7183295706028317e-18,2.832562005683263e-17,0.01050626130535094,-0.13497712036264375,0.0017201716154835634,0.00044037512702926825,1.60982266239212e-14,Non-gesture
1.1102230246251565e-16,1.5927634740337624e-16,0.0,0.0,0.0,0.0,0.0,0.0,0.0,0.0,0.05626160343994127,-0.8657749099887697,0.0003323390986489372,0.00045900290672662436,3.2741273458031636e-14,Non-gesture
1.1102230246251565e-16,7.112366251504909e-17,-1.0408340855860843e-17,1.1441240964133406e-16,0.0,0.0,0.0,0.0,0.0,0.0,0.044462596976137754,0.48288797482673135,0.0005988436190881852,0.0007021617538753855,1.4126062819068425e-13,Non-gesture
-4.382459307730881e-18,-1.0590943327016297e-17,3.031201021180526e-17,1.1321353211638109e-17,-1.844284958670079e-17,-6.117182783707688e-18,-3.9579085622944517e-17,-5.5237247524524645e-18,-5.5111708325605274e-17,8.79915657880341e-18,0.020653077600130975,-0.030842633711147253,0.006816983633018686,0.0005092032036929942,3.223447343512121e-14,Non-gesture
6.055761952500853e-17,0.0,-2.365532012695646e-17,2.3339915858597042e-17,-1.1354553660939102e-17,-9.777532319142004e-18,5.913830031739116e-17,-2.4128426529495588e-17,1.8948897060030747e-18,-2.599374708533997e-17,0.020457552008421413,1.3505639180675146,3.8704432670400024e-05,0.002388757053462398,1.160033020800947e-14,Non-gesture
1.4560301962297136e-17,1.8541634530112758e-17,1.8200377452871417e-17,1.7375672849538182e-17,1.9536967672066664e-17,6.569198736895778e-18,2.2579843277468603e-17,7.870241343878383e-18,-3.0691808384392935e-17,-7.585860446177268e-18,0.0059604938677708195,-0.10335326063415486,0.0015433192327268476,0.0011630866427644298,5.442294310157328e-15,Non-gesture
-5.529515453385994e-17,-5.529515453385994e-17,-6.911894316732492e-18,-2.807957066172575e-18,-1.3391795238669204e-17,2.2031663134584817e-17,1.3499793587368148e-17,7.775881106324054e-18,2.7215583872134186e-17,-4.579129984835276e-17,0.009306791555050927,0.5308467797744716,0.00244213636896898,0.013345444072419317,1.4730923929721554e-14,Non-gesture
-1.554312234475219e-16,-6.661338147750939e-17,3.8857805861880476e-17,-5.551115123125783e-18,-2.080977750236176e-16,0.0,0.0,0.0,0.0,0.0,0.1752548031816274,-0.9095832423789585,0.012259173895337127,0.0041290796424016205,1.4803186389266637e-13,Non-gesture
-1.5419764230904953e-17,-3.6172196924997865e-17,-6.1679056923619804e-18,-1.2849803525754127e-17,-1.015134478534576e-17,-3.3666485237475813e-17,-2.8189256484623115e-18,3.3007932806780914e-17,3.3088244078816877e-18,7.003142921536e-18,0.010470220291036454,0.04858655721813818,6.742329501279258e-05,0.0001987314727724475,5.0524664090072214e-15,Non-gesture
-1.3877787807814457e-17,-8.673617379884035e-18,5.2439809764513734e-18,-1.1762617686579686e-17,0.0,0.0,0.0,0.0,0.0,0.0,0.03248466929582975,0.9359354190649656,3.0893625445616024e-05,0.0015098327669729183,1.9370954082268217e-14,Non-gesture
1.0195925736353479e-17,1.0762366055039782e-17,-1.2461687011098696e-17,-3.894277190968342e-18,2.9738116731030977e-18,4.963433292488742e-17,2.3954230039445044e-17,5.469689327314626e-18,-2.4498543783182664e-17,-1.5364693644366007e-17,0.00482795198490896,-0.30704168247988056,0.00015451923446376453,0.00019928830710197538,1.758289032486054e-13,Open twice
1.5419764230904951e-18,-3.700743415417188e-17,-5.011423375044109e-18,1.02798428206033e-18,3.0839528461809902e-18,-2.030268957069152e-17,-1.7989724936055777e-17,2.849443931835978e-17,2.4446751207747227e-17,-4.2275853599731076e-17,0.026563868333466533,0.2046459650086133,0.00017627953064532274,0.0023075719884673228,1.0872566453825384e-13,Open twice
3.7981314000334304e-17,-2.0999284182877138e-17,7.669303788529043e-18,2.7116466966584827e-17,9.13012355777267e-18,2.757297314447346e-17,-6.46412747890305e-17,1.5247306341480356e-17,9.506741154530792e-18,-2.6020852139652106e-18,0.012206081506422703,-0.1877706928142486,0.00046503915100496774,0.002365335429228784,7.880714872455799e-14,Open twice
-1.286233991943779e-17,6.769652589177784e-19,5.500342728706949e-19,4.366425920019671e-17,2.3852447794681098e-18,8.292824421742785e-18,-2.4116887348945853e-18,7.954341792283895e-18,-2.1155164341180574e-19,-5.373411742659866e-18,0.005377509048480779,-0.14497409729808286,0.00017011991781658398,0.00011450524130632285,4.615322425199041e-14,Open twice
-1.0237712317240174e-17,-1.3650283089653564e-18,-9.10018872643571e-19,-3.9500506690685e-17,8.730493559424258e-18,-6.483884467585443e-18,1.410529252597535e-17,3.0087498976778066e-17,-1.7304577625112903e-17,3.0684698861950405e-17,0.011815210305643479,0.20297879607676564,0.00019363577335650462,0.0034193424581612695,1.5267817993553614e-14,Open twice
-5.234604173122997e-18,-9.73879846162418e-18,-1.1686558153949016e-17,2.921639538487254e-18,-3.811065741740275e-17,-8.399713673150855e-18,8.438469145544526e-18,-4.814618489465454e-17,-7.486701317373589e-18,-6.17805027409284e-17,0.006039731712581189,0.19163469661168525,0.000119998262530381,0.00013861316252408867,1.7896787080744075e-13,Open twice
3.469446951953614e-17,4.0172543654199745e-18,4.601582273117425e-17,-4.382459307730881e-17,-3.9076928827267024e-17,-2.319051383674258e-17,1.771243970207898e-17,4.218117083690973e-17,-3.047178737406628e-18,1.2485443965254125e-17,0.014269485692913723,-0.06299757292262738,0.0004966550925687688,0.0005860355599806277,1.7033380154001317e-12,Open twice
1.3611929803833336e-17,2.977609644588542e-17,1.5313421029312504e-17,6.805964901916668e-18,-1.1697752175169274e-17,2.637311399492709e-17,4.4664144668828136e-18,6.1679056923619804e-18,4.253728063697918e-17,-2.4246249963078133e-17,0.018531774797926726,-0.03327021984477229,0.018178137379666424,0.01675897065767162,8.980837385778758e-14,Pointing with one finger
5.787332787939646e-17,1.4173059888831785e-17,-3.3882471296738487e-17,5.9054416203465774e-18,-4.3552631950056005e-17,1.436221856573351e-17,1.1663247200184491e-17,-4.694826088175529e-17,5.07498889248534e-19,-3.236458825525878e-17,0.029048940783581157,0.23733630777417347,0.04570971101396388,0.012148113988631299,1.69428055707031e-14,Pointing with one finger
1.0092936587501423e-17,-4.0371746350005693e-17,-2.2709107321878203e-17,-6.938893903907228e-18,1.1669957929298521e-17,4.794144879063176e-17,7.569702440626067e-18,-3.3590554580278173e-17,-1.235990476633475e-17,3.410308651636223e-17,0.008939320969256781,-0.008070287172250865,0.02410191457984998,0.017835935681336998,2.6983296326344798e-14,Pointing with one finger
-2.800120017859908e-17,-1.5719972030090712e-17,-1.2772477274448703e-17,2.628182823780791e-17,2.6773077363748242e-17,-9.333733392866361e-18,-2.0095159557996818e-17,-4.129562964935939e-17,-2.505370542295707e-17,9.579357955836527e-18,0.010896388557040346,0.1484317760214107,0.005828457651124857,0.01301610306229066,4.44125679081578e-15,Pointing with one finger
0.0,-5.1940258461995625e-17,1.7529837230923523e-17,3.0839528461809902e-18,2.2723863077123086e-17,4.544772615424617e-17,-1.3634317846273851e-17,5.924435730821376e-18,-1.2741594653958302e-17,1.817909046169847e-17,0.017590096177020897,-0.0028636110502611675,0.02851138666716966,0.015055286826054361,2.7723627537355184e-14,Pointing with one finger
2.0898315757650005e-17,0.0,5.747036833353752e-17,-1.3714519715957817e-17,-1.5673736818237504e-17,4.408238480129298e-17,-3.428629928989454e-17,2.955152462605196e-17,2.8571916074912114e-17,7.55114924836963e-18,0.019106592871150865,0.2008429212769288,0.012674289830713717,0.013084981085982817,5.167896508236853e-14,Pointing with one finger
6.207698632312703e-17,3.820122235269356e-17,1.910061117634678e-17,-1.2236329034847155e-17,2.1488187573390126e-17,1.1937881985216737e-17,5.849562172756201e-17,-2.3875763970433476e-18,1.149021141077111e-17,3.581364595565021e-18,0.016283268399695853,-0.007091765043788091,0.02447919305252397,0.016126510358438748,1.0354299997520843e-13,Pointing with one finger
-5.088522196198634e-17,3.700743415417188e-17,0.0,-1.850371707708594e-17,1.2721305490496585e-17,-2.2695965477363227e-17,-1.1564823173178713e-18,2.7755575615628914e-17,-1.3733227518149723e-17,-4.336808689942018e-18,0.014008047438671652,0.06514106919515071,0.02854265677329874,0.014426775729135,3.380452270557463e-14,Pointing with one finger
4.674623261579606e-17,0.0,1.4283571077048797e-17,4.9343245538895844e-17,6.492532307749453e-18,2.7268635692547703e-17,7.466412153911871e-18,-2.7268635692547703e-17,-2.0126850154023305e-17,-3.408579461568463e-18,0.017420279321424616,0.03056974291361851,0.043305513124739306,0.028776584813970368,2.386749965004055e-14,Pointing with one finger
8.214366887400002e-17,6.160775165550001e-17,2.759513876235938e-17,-3.465436030621876e-17,3.2087370653906258e-18,3.0803875827750005e-17,1.4439316794257817e-18,-1.604368532695313e-17,-6.4174741307812516e-18,-4.5664339361840346e-17,0.011215816326071996,0.25408193329973455,0.026320541080776468,0.022408798945814205,2.3892894610337027e-14,Pointing with one finger
0.0,5.551115123125783e-17,1.1102230246251566e-17,-3.122502256758253e-18,1.5265566588595904e-17,1.3357370765021415e-17,-3.8163916471489756e-17,3.694961003830599e-17,-1.700029006457271e-17,3.7383290907300194e-17,0.019592193335984408,-0.2496353673400413,0.01471017314033286,0.01124226870769573,1.4534757599496465e-14,Pointing with one finger
4.502286920138884e-17,1.8418446491477252e-17,2.941835203499839e-17,1.0232470273042918e-17,-4.8604233796953855e-18,-2.6604422709911584e-17,-9.976658516216844e-18,-4.73251750128235e-18,3.2871810752150375e-17,3.555783419882414e-17,0.012119185767835206,0.3338313990292609,0.006809053076573943,0.012643356479557208,4.245134596003656e-15,Pointing with one finger
-1.3611929803833336e-17,2.7223859607666672e-17,2.807460522040626e-17,2.5522368382187506e-18,1.1059692965614586e-17,5.3596973602593766e-17,-2.0630581108934903e-17,3.4880570122322924e-17,-2.382087715670834e-17,-9.35820174013542e-18,0.029391023398949806,-0.051632314049608045,0.019973368803184784,0.013249501249430215,1.2251386058534283e-13,Pointing with one finger
2.4333655334250005e-17,0.0,3.421920281378907e-18,-7.604267291953127e-18,1.140640093792969e-17,-3.117749589700782e-17,-3.7260909730570323e-17,3.0417069167812506e-18,-4.144325674114454e-17,6.035887162987795e-18,0.01237990223657346,0.01021572513747251,0.010649077807877055,0.007520849508421024,4.4254692200076616e-14,Pointing with one finger
0.0,0.0,-1.2024076078972814e-17,4.168346374043909e-17,8.01605071931521e-19,3.406821555708964e-18,-3.386781428910676e-17,-3.6072228236918445e-17,-8.01605071931521e-19,8.01605071931521e-18,0.019797420300059185,-0.05466880493848985,0.010622446803322165,0.0071312710191304635,2.4122023840546135e-14,Pointing with one finger
7.656710514656253e-17,-8.597847848749417e-17,-2.9948904148473154e-17,2.9470359741307134e-17,3.3498108501621104e-18,1.2960577694079593e-17,-1.579196543647852e-17,-4.027748760313966e-18,-2.3668008804419196e-17,-4.965895191862343e-17,0.024627949036254024,0.5876001807065709,0.03285223901936158,0.03185359052462836,8.257176890515592e-14,Pointing with one finger
5.756711979537848e-17,-3.700743415417188e-17,-1.6126503424821428e-17,1.5676760301420033e-17,-4.2366873041371833e-17,1.5933756371935117e-17,6.724730511811326e-18,2.2326533625997795e-17,-1.1457741477130763e-17,-2.962147416926446e-17,0.00984383749227508,0.19196031369923502,0.0011665491622472794,0.0006231613431448702,3.628888314052277e-14,Pointing with one finger
1.402386978473882e-17,-3.739698609263685e-17,-1.6945509323226074e-17,1.402386978473882e-17,2.863206747717509e-17,3.8565641908031756e-17,2.103580467710823e-17,-1.1686558153949016e-17,-1.1102230246251566e-17,3.3598854692603422e-18,0.02335916592974657,0.0385552851208062,0.021041738746178124,0.014149090649470985,3.291424063764466e-14,Pointing with one finger
-9.645376503530772e-17,-3.215125501176924e-17,9.042540472060099e-18,-4.596624739963883e-17,-3.717488860735818e-17,3.7677251966917074e-18,-1.883862598345854e-17,1.4568537427207937e-17,-3.8681978686034864e-17,-1.883862598345854e-17,0.01430090444081976,0.6719230902788611,0.02143740507026016,0.024593154310827436,3.4362755347327607e-14,Pointing with one finger
-4.144832625267251e-17,5.921189464667502e-18,8.881784197001253e-18,2.7385501274087195e-17,8.049116928532384e-18,-2.183438615096141e-17,5.366077952354923e-18,1.5034270125132329e-18,-2.6367796834847467e-17,5.837922737820615e-17,0.049189604514281074,-0.2905204238281321,0.03663903139193907,0.013669148654794582,1.2320632410764255e-13,Pointing with one finger
6.226250746208649e-17,2.5880198884843177e-17,-1.225246130780015e-17,-9.189345980850113e-18,-4.313366480807196e-17,3.00060276925718e-18,-2.6958540505044973e-18,-1.400281292320017e-17,2.5942711442536034e-17,2.5848942605996747e-17,0.026809618535315168,0.3328185135536087,0.018700563075588702,0.011836363778218695,3.551142873704102e-14,Pointing with one finger
-3.1073297482220126e-17,2.4599693840090933e-17,-1.5536648741110063e-17,6.473603642129192e-18,4.272578403805267e-17,-5.017042822650124e-18,1.2947207284258385e-17,-1.747872983374882e-17,1.780241001585528e-17,5.259802959229969e-17,0.016926499836125118,0.09335516523682923,0.016069156099850396,0.01449160127317038,2.545106311700793e-14,Pointing with one finger
-2.853585284177109e-17,-4.280377926265664e-17,1.7834908026106932e-17,4.102028846004594e-17,3.2102834446992477e-17,-1.070094481566416e-17,-5.796345108484753e-18,-2.1067485105838814e-17,3.5669816052213865e-17,5.1721233275710106e-17,0.019754323932953052,0.1306011367632872,0.03009200224283788,0.007805600177058243,7.777061477527126e-14,Pointing with one finger
0.0,0.0,-5.0315526239169656e-17,0.0,-2.4063947331776793e-17,-2.6251578907392863e-17,7.109802620752235e-18,-4.101809204280135e-17,3.281447363424108e-17,1.3399243400648442e-17,0.01786664419584883,-0.02795870257721117,0.0319094168371176,0.006312578745349371,3.1802742874092106e-14,Pointing with one finger
4.877867751213502e-17,-2.438933875606751e-17,2.6421783652406473e-17,-4.5730010167626584e-18,1.2702780602118497e-17,1.8546059679093003e-17,2.0324448963389593e-17,-2.438933875606751e-17,-6.859501525143988e-18,8.383835197398208e-18,0.01001736653583986,0.2866020245574543,0.02884479065666187,0.008543099282742899,6.231099784305215e-14,Pointing with one finger
-2.322035084183334e-17,0.0,-1.705244514947136e-17,-1.523835523995313e-17,5.478551526745054e-17,1.523835523995313e-17,8.707631565687502e-18,-9.070449547591149e-19,-2.3038941850881518e-17,3.5646866722033215e-17,0.008582687469979353,0.07960390153836114,0.009140553497566463,0.008383935687284792,6.890965574018187e-15,Pointing with one finger
5.111818242878419e-17,-1.2779545607196047e-17,-1.118210240629654e-17,3.354630721888962e-17,-1.0782741606071665e-17,-1.5974432008995059e-18,-1.5974432008995057e-17,-3.7939276021363266e-18,-1.2779545607196047e-17,9.884179805565692e-18,0.019599089594074415,0.24043618772401043,0.031231401158857437,0.013167589767567652,4.799551610090817e-14,Pointing with one finger
-3.588599675556062e-17,-3.140024716111554e-17,-4.0371746350005693e-17,-1.4017967482640866e-17,-6.7286243916676156e-18,-3.089209583986981e-17,-1.45786861819465e-17,1.3036709758856006e-17,-1.654120162951622e-17,2.8596653664587365e-17,0.011022890881357926,-0.07838653285671822,0.006699577261604883,0.003506211877126395,6.872608193535796e-14,Pointing with one finger
6.560408781875925e-17,-2.0185873175002847e-17,1.0723745124220262e-17,-1.4193192076173877e-18,-1.7031830491408652e-17,-3.8242767538579613e-17,-4.147566128926366e-17,-2.767672454853906e-17,1.0329489788770987e-17,5.99268109882897e-18,0.03220377116877758,0.47246851336163526,0.039610088694566115,0.007295848243453112,1.817055626432536e-14,Pointing with one finger
3.089316242435218e-17,-7.723290606088046e-18,1.544658121217609e-17,2.896233977283017e-18,1.1584935909132068e-17,-1.882552085233961e-17,6.275173617446537e-18,-1.1826288740572319e-17,-4.042659926624211e-18,1.68946982008176e-18,0.020883942860331375,0.07755752224672781,0.01757118784007305,0.011879669645707762,2.5254302147897474e-14,Pointing with one finger
0.0,4.0371746350005693e-17,-2.5232341468753557e-17,-7.569702440626067e-18,-2.2078298785159362e-17,3.9267831410747725e-17,-1.6243319820510102e-17,-1.1039149392579681e-17,-6.23711940680752e-17,-2.6020852139652106e-17,0.018558566880033357,0.3030284664682874,0.028447053979689562,0.023992866591140395,2.6499173186523824e-14,Pointing with one finger
5.996141230043039e-17,-4.4971059225322796e-17,2.6233117881438298e-17,2.658445428163613e-17,-1.3585007474316262e-17,1.428768027471193e-17,1.0305867739136475e-17,-4.661062909291269e-17,2.98343159834661e-17,-9.486082805341527e-18,0.013616363271822786,0.07195967998358209,0.022105172041310767,0.0096639397337895,2.068682640960332e-14,Pointing with one finger
3.681568579067877e-17,-2.7611764343009074e-17,2.66050854346702e-17,-1.9558333076298093e-17,-1.474065544353349e-17,3.005655597754634e-17,1.8120220350099705e-17,-1.7257352714380671e-18,-4.314338178595168e-17,-9.491543992909369e-18,0.01914429365281584,0.016743539327910468,0.028119173784380596,0.019897096188943055,2.2131600653143077e-14,Pointing with one finger
5.572884202040001e-17,-4.527968414157501e-17,5.224578939412501e-18,-1.610911839652188e-17,3.134747363647501e-17,-8.707631565687502e-19,1.3279138137673442e-17,6.748414463407814e-18,-1.8939098655370318e-17,-2.6122894697062506e-18,0.01679572006804506,0.24701672573649808,0.015563639113080563,0.025115418871904747,2.6407629995726938e-14,Pointing with one finger
-1.229312691626471e-17,-3.6879380748794125e-17,-5.37824302586581e-18,-1.5366408645330887e-18,-5.0709148529591925e-17,1.3829767780797797e-17,3.3517978857628e-17,4.68675463682592e-17,-2.497041404866269e-18,-3.130905761486168e-17,0.0204448342027138,0.14625230636508213,0.01684785179304255,0.01477515496729509,1.0023702305704575e-13,Pointing with one finger
3.8827471899459027e-17,0.0,-1.6987018956013324e-17,-4.064750964474617e-17,4.929268893486009e-18,9.100188726435709e-18,-4.125418889317522e-17,3.0333962421452364e-18,2.563219824612725e-17,-2.963248954045628e-17,0.020233018683603922,-0.06704429866494617,0.01761799397514161,0.01488682246335524,2.427033245989385e-14,Pointing with one finger
0.0,4.5743094576830484e-17,3.907222661770937e-17,-5.7178868221038105e-18,5.652369368933871e-17,3.526030206964016e-17,1.5247698192276828e-17,3.3949953006241377e-17,4.240766059726993e-17,-2.0846462372253475e-17,0.017169400667813105,0.1759615090047511,0.031206937738901236,0.024654589943839577,2.2440012086723816e-14,Pointing with one finger
1.6679406942725357e-17,1.6679406942725357e-17,2.2934184546247366e-17,-1.4594481074884688e-17,-2.9970809350209626e-17,-1.407324960792452e-17,3.023142508368971e-17,-2.971019361672954e-17,5.7335461365618416e-18,-2.593126548126833e-17,0.014726140749325859,-0.02113331182551908,0.01970876583498283,0.011115514288420437,9.86163355704441e-14,Pointing with two fingers
-5.824120784918854e-17,0.0,4.853433987432378e-18,-2.244713219187475e-17,2.426716993716189e-17,-1.2740264217009993e-17,1.427592106459602e-17,1.577366045915523e-17,1.2285254780688207e-17,-1.1147731189883744e-17,0.01769000869247866,-0.04715661365908662,0.014102622494720099,0.011638320472130818,1.2231356111124274e-13,Pointing with two fingers
6.70323335622736e-17,-5.86532918669894e-17,-1.0473802119105251e-17,-8.3790416952842e-18,1.885284381438945e-17,2.336967097825359e-17,7.069816430396044e-18,1.3092252648881564e-18,5.812960176103415e-17,-3.0112181092427596e-18,0.014201242792642357,0.5613386275163559,0.02026750140164364,0.026661425599801017,8.11164441887191e-14,Pointing with two fingers
2.4671622769447922e-17,2.4671622769447922e-17,-1.2335811384723961e-17,-1.214306433183765e-17,2.3129646346357427e-18,4.394632805807911e-17,8.866364432770347e-18,1.0408340855860843e-17,4.7415775010032725e-17,2.6791840351197354e-17,0.027529164430354466,0.22204319766047625,0.021101412087584995,0.012806555205259428,5.585002602196716e-14,Pointing with two fingers
0.0,5.245148147835385e-18,1.049029629567077e-17,-6.993530863780514e-18,2.5351549381204363e-17,-7.813085261879793e-18,2.3493892745512664e-18,3.070597144878632e-17,-2.272897530728667e-17,2.119914043083468e-17,0.010209791321015458,0.2628641997221507,0.01373589442909831,0.009031439270537619,3.8497728744964165e-14,Pointing with two fingers
1.5514033531879916e-17,7.757016765939958e-18,2.3271050297819874e-17,-3.878508382969979e-18,2.5210304489304865e-17,-4.848135478712474e-18,-7.757016765939958e-18,-3.3936948350987316e-18,-1.9998558849688956e-17,2.2028715581399803e-17,0.016454402743430546,0.1319829276360309,0.015228082404017402,0.02012190443613487,1.5185398772684243e-13,Pointing with two fingers
3.4492365813597093e-17,1.3743052003855093e-17,-3.8803911540296735e-17,4.311545726699637e-18,7.006261805886911e-17,1.4551466827611275e-17,1.0239921100911638e-17,3.348184728390187e-17,-1.9940898985985822e-17,-7.00626180588691e-18,0.015062767787855475,0.20134492257735542,0.019790278434559494,0.013548490052920659,1.4531986796420687e-13,Pointing with two fingers
-4.083578941150001e-17,-4.083578941150001e-17,-6.635815779368752e-17,-1.403730261020313e-17,-3.892161178283595e-17,2.807460522040626e-17,2.1694013124859382e-17,1.914177628664063e-17,-4.594026308793751e-17,-1.5313421029312504e-17,0.021313535036753813,0.12833125471445514,0.01957358068074717,0.019400452233689965,4.765040498368885e-14,Pointing with two fingers
-3.982862868610427e-18,3.982862868610427e-17,1.9914314343052135e-18,3.982862868610427e-18,2.3897177211662563e-17,1.4935735757289102e-18,1.3940020040136495e-17,-1.468680682800095e-17,-2.93736136560019e-17,1.6989399423916353e-17,0.022423022610619844,0.30404630844503616,0.0293082014836876,0.015416050510983745,9.026962424207806e-14,Pointing with two fingers
1.4802973661668754e-17,-6.555602621596163e-17,4.546627624655403e-17,-1.751244651938491e-18,-4.5994953877327917e-17,3.96508223080413e-18,-2.6433881538694206e-19,2.6433881538694206e-19,-1.4076041919354663e-17,2.839990147813458e-17,0.021652439338272107,0.13982556166935448,0.01085707784496258,0.001461358477549715,3.056051543128488e-13,Pointing with two fingers
7.300096600275002e-17,4.866731066850001e-17,0.0,-2.186226846436524e-17,2.281280187585938e-17,-1.302230773746973e-17,2.281280187585938e-18,1.3117361078619144e-17,-3.5882636283903815e-17,-2.889621570942188e-17,0.010336136869902143,0.05454769310159612,0.01959118687509959,0.023216157390215725,8.911399540538967e-14,Pointing with two fingers
2.7540416114732565e-17,0.0,-1.8934036078878638e-17,1.6352122068122462e-17,-2.3237226096805603e-17,8.692443836212465e-17,1.2479251051988194e-17,-1.6244542317674288e-17,5.594147023305052e-18,-4.0207931730005066e-18,0.02298234019828316,0.2304184301231566,0.032636044092568206,0.03795828699658547,7.004285025146245e-14,Pointing with two fingers
6.372580589776683e-17,1.1948588605831282e-17,1.4562342363356873e-17,3.485005010034124e-17,2.8875755797425593e-17,-6.970010020068247e-18,2.5515215252035548e-17,8.214654666509006e-18,1.1201801817966826e-17,1.2944304322983888e-17,0.010708476638414368,0.03319286327051586,0.007056898454777543,0.008652377150502042,1.3582812206697243e-13,Pointing with two fingers
-1.3457248783335231e-17,-3.3643121958338078e-18,3.3643121958338078e-18,2.3550185370836655e-17,-1.3457248783335231e-17,3.932039878880763e-17,1.2090496953777746e-17,1.492913536901252e-17,-1.6401021954689813e-17,1.4718865856772908e-17,0.01930198574644276,-0.16501788878117904,0.010129559862455392,0.0026012905964872693,1.3682448315602485e-13,Pointing with two fingers
-7.599387548236365e-17,-3.7996937741181826e-17,1.1874043044119321e-17,3.4434724827946034e-17,-5.046468293750712e-18,5.9370215220596605e-18,2.9685107610298305e-17,-3.0872511914710235e-17,-2.953668207224681e-17,4.4527661415447456e-18,0.01918896292547376,-0.22133838783644147,0.021065467765303963,0.014149277688167277,9.190826420596543e-14,Pointing with two fingers
-9.923781225699724e-18,0.0,9.923781225699724e-18,3.2252288983524104e-17,-2.3568980411036843e-17,-1.0544017552305956e-17,4.322271901037184e-18,-1.0621547093131735e-17,6.202363266062327e-18,-1.3102492399556665e-17,0.015434831121260012,-0.146441639622299,0.07400693197419823,0.008780246093896984,7.823343270396536e-14,Pointing with two fingers
0.0,4.4408920985006264e-17,1.3877787807814458e-18,0.0,-2.2204460492503132e-17,-6.938893903907228e-18,-2.4980018054066023e-17,6.938893903907229e-19,8.847089727481716e-18,-4.254409324833119e-17,0.016667391253427137,-0.21583870767227809,0.018954586239161957,0.006007183463649182,5.5164892332786746e-14,Pointing with two fingers
1.7763568394002505e-17,0.0,2.1094237467877975e-17,-2.831068712794149e-17,-4.440892098500626e-18,3.6533276404071555e-17,-4.3229309021342036e-17,1.7763568394002505e-17,-3.164135620181696e-17,-4.381911500317415e-17,0.0082450233203688,0.03544648852820953,0.01529188642396605,0.010431389077161462,4.7896348879658446e-14,Pointing with two fingers
-4.277088701424783e-17,2.3887995406893736e-17,-1.1375235908044637e-17,-3.640075490574284e-18,-3.3386317390111006e-17,3.1708470093674423e-18,-6.626074916436001e-18,2.2067957661606595e-17,7.024208173217564e-18,7.991103225401357e-18,0.013180068114961472,0.18576426395394413,0.007726764319984051,0.007835360579256795,5.488592538470123e-14,Pointing with two fingers
0.0,-5.522352868601815e-17,0.0,-2.0708823257256806e-17,-7.478186176231625e-18,3.681568579067877e-17,-2.4447916345372616e-18,1.725735271438067e-17,2.99127447049265e-17,7.363137158135753e-17,0.02944197209528507,-0.03604917048900088,0.020537085898843694,0.022790971425720757,1.509824950363184e-13,Pointing with two fingers
-6.468255882598738e-17,5.3097622916855314e-17,-4.827056628805028e-18,-2.9445045435710676e-17,6.8182174881871026e-18,4.4891626647886764e-17,-1.964008665845046e-17,5.219254979895437e-18,3.276364686801413e-17,8.085319853248422e-18,0.018810033365228834,0.2607109897402982,0.009553457492191478,0.026918714103276925,8.423635703748722e-14,Pointing with two fingers
-3.200642953874325e-17,-3.200642953874325e-17,3.40068313849147e-17,2.2004420307885986e-17,7.001406461600086e-18,7.376481807757234e-18,-3.500703230800043e-18,3.6507333692629024e-17,-2.900582676948607e-17,-2.5005023077143164e-18,0.01595638870301627,0.16592264226031578,0.022109140720450244,0.025515161436981015,3.8094646564297355e-13,Pointing with two fingers
-1.6971562159875004e-17,-4.5257499093000014e-17,-5.657187386625002e-18,0.0,1.1314374773250004e-17,-8.485781079937502e-18,9.192929503265627e-18,2.7578788509796882e-17,-3.270561457892579e-17,3.182167904976563e-17,0.027474553172652596,0.14980168506750857,0.011090479361216724,0.005519535113492009,1.8513923347259701e-13,Pointing with two fingers
1.1102230246251566e-17,3.8857805861880476e-17,-1.457167719820518e-17,-1.8041124150158794e-17,3.3306690738754695e-17,1.9428902930940238e-17,-3.50414142147315e-17,-1.3877787807814457e-17,-1.5959455978986624e-17,-1.1449174941446926e-17,0.02896795195704,0.2112572467180905,0.021492777264958664,0.018131658197737956,2.4574882960004485e-13,Pointing with two fingers
-4.270088556250602e-18,0.0,2.0016040107424697e-17,1.5479071016408433e-17,-1.4945309946877107e-17,1.0675221390626506e-18,8.873777780958282e-18,-2.4019248128909636e-18,-6.60529323545015e-18,4.123304262129488e-17,0.008923457413305535,0.058046300063214984,0.0213327852891594,0.016672565645189256,2.3270108765882104e-14,Pointing with two fingers
-1.4990353075107598e-17,-7.495176537553799e-18,-2.435932374704985e-17,-4.12234709565459e-17,-9.368970671942249e-18,-5.152933869568237e-17,2.9043809083020976e-17,2.810691201582675e-17,-3.078585206733523e-17,4.087213455634806e-17,0.019420647582106716,0.143486444200319,0.005710692500139474,0.004289960273180375,8.587431979342553e-14,Pointing with two fingers
-5.781042968462354e-17,-1.182486061730936e-17,-2.6277468038465242e-17,-3.153296164615829e-17,-1.0510987215386097e-17,-4.86133158711607e-17,-1.9708101028848932e-17,1.3795670720194252e-17,-3.6788455253851344e-17,-1.5766480823079147e-17,0.02050170266429206,0.15650315202427634,0.0185781853325224,0.00944843588868526,1.7746744183262337e-13,Pointing with two fingers
0.0,-4.9688303200007006e-17,0.0,-2.2320917453128146e-18,9.316556850001314e-18,7.472654973438553e-18,7.763797375001095e-19,-1.7468544093752465e-18,-3.2510901507817085e-18,-4.852373359375684e-18,0.014181039033515351,-0.024905062377347693,0.009816909669816555,0.007789099844664303,9.387972944554983e-14,Pointing with two fingers
1.8312957107219077e-17,-4.005959367204173e-18,-5.036063204485246e-17,-4.578239276804769e-18,1.5737697514016394e-18,-2.2891196384023845e-17,3.8915033852840536e-17,1.1159458237211625e-17,-3.251265236418387e-17,4.864379231605067e-18,0.025287287416575512,0.006253253359375984,0.013767508594535648,0.0023582267298158845,1.6738496153991125e-13,Pointing with two fingers
9.25185853854297e-18,-5.3138879811118606e-17,-7.591268544445516e-18,2.4078554914413118e-17,1.719896779600937e-17,-2.3900634557902677e-17,4.944703241352694e-17,-1.3699867451304016e-17,9.014631396529049e-18,1.6012832085939756e-17,0.025163013279498412,0.05613425743740215,0.044700178960897,0.011994906344817093,2.5893411761894344e-14,Pointing with two fingers
-2.140188963132832e-17,4.414139736461466e-17,6.6880905097900996e-18,-1.9061057952901784e-17,-1.070094481566416e-17,2.382632244112723e-18,-9.321526148019952e-18,-2.3199313955834407e-17,1.5319907323987946e-17,-5.039058193469978e-17,0.028561428767637145,-0.29294546538892136,0.031822228962553434,0.02754132371227237,5.281273834674452e-13,Pointing with two fingers
-4.057667907259455e-17,-1.80340795878198e-17,9.0170397939099e-18,1.80340795878198e-17,1.2398429716626114e-17,5.072084884074319e-18,1.465268966510359e-17,4.87483713858254e-17,6.762779845432426e-18,2.817824935596844e-17,0.027973054991539497,0.10413291334337038,0.04187758784392942,0.01346545773506761,9.88010447933263e-14,Pointing with two fingers
5.0342096663164993e-17,1.4383456189475712e-17,2.696898035526696e-18,-1.0731406766366644e-17,-8.98966011842232e-19,1.5198144137707734e-17,1.2585524165791248e-17,5.037018935103506e-17,6.068020579935066e-18,2.921639538487254e-17,0.011495967375231888,0.08551217481480185,0.021501517241265262,0.010188007502700708,3.041889002341683e-14,Pointing with two fingers
3.739698609263685e-17,-3.739698609263685e-17,3.126154306181362e-17,-1.0152697396243209e-17,8.764918615461762e-18,-2.5710427938687835e-17,-1.2709131992419555e-17,2.921639538487254e-18,7.997988236608858e-18,1.0116176902012118e-17,0.013494495668155665,0.037394266884731305,0.023926725037327654,0.01630019126819652,2.4456415148154805e-14,Pointing with two fingers
-2.157518428421357e-17,3.416070845000482e-17,-4.49483005921116e-17,4.045347053290044e-17,3.730708949145263e-17,-2.494630682862194e-17,1.685561272204185e-17,1.5057680698357387e-17,4.0003987526979326e-17,-1.4495826940955992e-17,0.013254349270267396,0.1658173402235609,0.028262848777437906,0.01821528024342038,5.865616773248735e-14,Pointing with two fingers
-1.6695083077070022e-17,0.0,-3.672918276955405e-17,-2.838164123101904e-17,-4.340721600038206e-17,2.838164123101904e-17,3.088590369257954e-17,1.1686558153949016e-17,-3.8816068154187805e-17,9.495328500083576e-18,0.018358362066476345,0.20522569931216664,0.02715765731128896,0.009051820060675614,1.9031386481577602e-13,Pointing with two fingers
-3.053113317719181e-17,1.5265566588595904e-17,2.7755575615628915e-18,1.908195823574488e-18,-6.487865800153258e-17,-2.7408630920433553e-17,3.4694469519536144e-19,4.5666595505089446e-17,-5.724587470723463e-18,3.517151847542976e-17,0.034263063504895455,0.5299954077339994,0.03905182749476483,0.00830785718810624,4.274736814883212e-14,Pointing with two fingers
-4.0371746350005693e-17,1.6821560979169039e-18,-3.5745817080734206e-18,-8.410780489584519e-19,-1.0513475611980649e-17,-1.566507866185117e-17,-3.495730640983566e-17,8.857603203093697e-18,-1.1775092685418327e-17,2.6283689029951622e-18,0.02630794824780678,0.23302799162143978,0.0005741428584115165,0.0057774520680280855,9.871397717395586e-14,Throw down
-2.1994984450121027e-17,8.3790416952842e-18,-3.4039856887092064e-18,1.5448858125680244e-17,9.426421907194725e-18,9.360960643950318e-18,2.93266459334947e-17,-6.153358744974335e-18,3.4980862546230425e-17,1.643077707434636e-17,0.012122865993494146,0.04759889603322282,0.0003206731014499912,0.003987117794280419,2.0748448855214815e-13,Throw down
-3.554661438492826e-17,7.791038769299344e-18,6.086749038515112e-19,4.86939923081209e-17,2.7755575615628914e-17,-2.4042658702134694e-17,3.470968639213243e-17,-2.958160032718345e-17,1.1686558153949016e-17,-1.3573450355888702e-17,0.015408164822563991,0.28882736538331605,0.000752455311952994,0.008529067006391661,2.946680532812426e-14,Throw down
3.581364595565021e-17,-4.342404572122588e-17,-2.1935858147835753e-17,7.162729191130042e-18,-1.9524382670646222e-17,2.3278869871172638e-17,8.505740914466925e-18,3.581364595565021e-18,3.3295498974393557e-18,-7.722317409187076e-18,0.0439894412936082,-0.5197829852410772,0.0021114354694733955,0.011428058589501857,1.7204602839589265e-14,Throw down
-4.037174635000569e-18,-1.7094911345080537e-17,-1.413011122250199e-17,2.0185873175002847e-17,5.803438537813318e-18,-2.239370305351878e-17,-1.0723745124220262e-17,3.176120982379354e-17,3.7217703666411495e-17,-7.695864147969835e-18,0.014854627582876232,-0.5234831814200264,0.00012361267778095757,0.009353585541903084,7.718047477005432e-14,Throw down
3.6146796150586495e-17,7.229359230117299e-17,3.2273925134452225e-19,-1.5491484064537068e-17,9.843547166007929e-18,-3.561225926554713e-17,2.2107638717099773e-17,2.5012291979200476e-17,-1.8234767700965506e-17,5.849648930619466e-18,0.01601252607033174,0.1559750729103027,0.004288986568419267,0.0020876473054103244,6.493501281375675e-14,Throw down
0.0,5.204170427930421e-18,1.198536219765794e-17,1.5454809149611553e-17,2.5547745737112976e-17,4.100255488672453e-18,2.073783064463183e-17,-1.9712766772463716e-17,2.5863150005472395e-17,2.4522681864944864e-17,0.014975573147076855,-0.2512989589028753,0.00045980969146194433,0.019107498931201353,4.424940550143268e-14,Throw down
2.843254087454669e-17,4.231032868236115e-18,-7.446617848095563e-18,1.0577582170590287e-17,2.978647139238225e-17,-2.910950613346447e-17,2.910950613346447e-17,-3.75715718699367e-17,1.0450651184543204e-17,1.1370900833384558e-17,0.01021033384083249,0.7428713675537757,0.006318464322516339,0.002127282144553587,1.5093827002872053e-13,Throw left
-2.8764869274379056e-17,5.046468293750712e-18,5.046468293750711e-19,-2.4727694639378486e-17,1.0092936587501423e-18,2.9048733115902534e-17,-7.695864147969835e-18,-3.34643928729344e-17,-9.588289758126352e-18,-4.011942293531816e-17,0.01441014767555711,0.21948292686336665,0.0020621678882249785,0.0007873937407892721,8.539740869379936e-14,Throw left
-2.2204460492503132e-17,-5.551115123125783e-18,-4.093947403305265e-17,-1.908195823574488e-18,3.469446951953614e-17,-3.400058012914542e-17,2.4286128663675298e-18,-5.377642775528102e-18,-8.673617379884036e-20,2.185751579730777e-17,0.023213909510509573,0.14231582973848184,0.0045152423564076335,0.009218996680180664,7.303175922424261e-14,Throw left
4.194175870806147e-17,3.7007434154171884e-18,2.0142067026619595e-18,3.7007434154171884e-18,2.1587669923266933e-17,-2.2435756955966705e-17,6.3992021558255554e-18,-1.457167719820518e-17,2.3553689862707314e-17,2.0142067026619593e-17,0.007259829143763365,0.2900177845101629,0.015552374489472711,0.0018257151743347562,4.949738514159922e-15,Throw left
4.326604434200978e-17,2.0408511482080085e-17,3.061276722312013e-17,9.387915281756839e-18,-1.469412826709766e-17,-1.739825603847327e-17,3.209238430557093e-17,-2.1122809383952885e-17,-4.92865552292234e-17,-1.4917346361432912e-17,0.010163055878371945,-0.15920717934341908,0.002166998353046797,0.0050654913748347,3.3838506032331856e-13,Throw left
-1.4802973661668754e-17,-1.1102230246251566e-17,1.3183898417423733e-17,2.4054832200211726e-17,-1.0292692624129056e-17,-1.769417945496343e-17,-3.720981855970251e-17,3.498359009886561e-18,-2.5384786865127276e-17,-4.22116045821023e-18,0.027122015199048822,0.027030407575208866,0.009618568527900313,0.00797697519501462,2.0113974053533022e-14,Throw left
1.48870814665646e-17,2.2551405187698493e-18,-6.636105806282186e-17,-1.4950162320236484e-17,-2.0816681711721684e-18,-3.21081545189889e-17,1.0723745124220262e-17,-4.731064025391292e-18,4.731064025391292e-19,-3.002648634781673e-17,0.00913444715431407,0.1142145969424344,0.0002068025791750134,0.001854102977888878,1.7160972505840669e-13,Throw left
3.3934042790340826e-17,-1.5208534583906253e-18,-5.703200468964845e-18,-3.9161976553558606e-17,2.9656642438617197e-17,-5.3229871043671886e-18,1.3117361078619144e-17,-6.843840562757814e-18,-3.184286928505372e-17,-9.968719153044803e-18,0.04462426874106622,0.18918891358432152,0.030046906244789926,0.026973615234786686,6.823164008239477e-14,Throw right
3.10404775169467e-17,3.6613738046148777e-17,4.133809134242604e-17,-1.4173059888831785e-17,2.627921521054227e-17,7.397949717363856e-18,1.5317239202773936e-17,-1.9857047448415368e-17,-2.749721254473875e-17,2.960102612198722e-17,0.012108419988580494,0.26099902403753494,0.0025537790146020894,0.00038286210033666615,3.649824637694607e-14,Throw right
4.3989968900242054e-17,5.760591165507888e-18,-3.796753268175653e-18,1.047380211910525e-18,2.703550171994043e-17,-1.440147791376972e-17,-2.5791737718296678e-17,-4.07107687445925e-17,-1.0342879592616434e-17,4.6886629798807096e-18,0.016490561086900956,0.17828692134927657,0.01358330148152956,0.0011529680841034949,6.386156143290612e-14,Throw right
3.172065784643304e-17,1.784287003861859e-17,-9.912705577010326e-18,7.93016446160826e-18,-2.279922282712375e-17,-1.3629970168389198e-17,-3.96508223080413e-18,-2.4781763942525814e-19,1.9484661899810923e-17,3.1163068157726215e-17,0.012965873315032211,0.1516459398215136,0.0027101202712420565,0.003568229641359552,2.2916876787410417e-14,Throw right
3.2031870695943835e-17,-4.8007463637497685e-18,2.7755575615628914e-17,2.7110097112939868e-17,-1.726654994693194e-17,1.1779982674075061e-17,-6.575812246144641e-17,6.333757807636249e-18,-5.5269096792749435e-17,-1.5330114438864806e-17,0.013135442905512426,0.16154673398812927,0.0026186843487798488,0.004589298633404151,1.9154551360874515e-13,Throw right
-6.259768117567372e-17,1.8334550780669766e-17,-1.299197156476247e-17,-3.188938474987152e-17,2.1407225873756344e-17,2.4115424491837155e-17,5.693214812115372e-18,-2.928729953590631e-17,7.750892126704882e-18,-8.332209036207749e-18,0.01760382653652312,-0.29925355436951345,0.0027939795351659296,0.008020497097548904,4.6566623894782104e-14,Throw right
-3.573131573506251e-17,9.570888143320315e-19,1.5599776581549786e-17,3.301956409445509e-17,-9.570888143320315e-19,3.078635686101368e-17,5.086528261168776e-17,1.399742390960596e-17,1.9221533687834965e-17,3.7565735962532236e-17,0.016200312555482533,-0.5090709303070706,0.003911391642937672,0.006243662435526937,1.612431838166712e-14,Throw right
-2.8712664429960945e-18,-9.570888143320316e-18,-1.914177628664063e-17,-2.2072860780532476e-17,-8.613799328988284e-18,2.0338137304555668e-17,5.0247162752431654e-18,4.007809410015382e-18,-3.6967555453574716e-17,-2.6918122903088387e-17,0.02332861031252466,0.42074121390354763,0.0009413336151841646,0.0052680585251531735,2.201715398077317e-13,Throw up
7.110417124003812e-17,-5.551115123125783e-17,5.301626802985298e-18,2.2609879012731418e-17,1.9569240111019262e-17,-2.1128542111897292e-17,4.755871102677988e-18,6.100769078435288e-18,-2.4247146113653348e-17,1.2708311307155935e-17,0.016711064348026685,-0.09753841917644773,0.00026396031978700524,0.008980362824864025,8.696236017399355e-14,Throw up
-1.6787646541711037e-17,1.6563811254488223e-17,-1.6228058323654003e-17,4.0849939918163524e-18,-3.3575293083422074e-18,-1.1723373168294873e-17,-1.0911970252112174e-18,-2.7140028575766175e-17,-3.612841432830729e-18,1.3010426069826053e-17,0.006629206257206047,0.0037883051114776397,0.0003676830450654564,0.004842337755197236,2.622884119026004e-14,Throw up
1.1102230246251566e-17,1.3877787807814458e-18,8.326672684688674e-18,2.0816681711721685e-17,-1.3617579286417935e-17,6.4184768611141866e-18,-2.2551405187698493e-18,-1.0408340855860842e-18,-2.151057110211241e-17,1.1037178115902435e-17,0.01636680973496809,-0.27494094242319156,0.00018664708585541535,0.013362984257433503,1.3225901034967245e-13,Throw up
1.1102230246251565e-16,1.850371707708594e-17,-5.28677630773884e-18,-2.2468799307890073e-17,-6.73237920438618e-18,1.1730034932795553e-17,-1.6521175961683876e-18,5.1876492519687375e-17,-9.664887937585068e-18,-2.3542675745399524e-17,0.028655088221217283,-0.6171672181982913,0.0002482195431921598,0.011708113092317266,2.0130721615539122e-14,Throw up
-5.674473236973022e-17,2.2782701651162066e-17,2.1587669923266933e-18,-2.528841333868412e-17,2.0970879354030734e-17,-5.768919292887315e-17,7.94117857891605e-18,3.469446951953614e-18,-2.1125076996339783e-17,1.1063680835674304e-17,0.01282016156924003,0.3883590234232214,0.0003391268209991227,0.010278467681259158,1.3424815565097818e-14,Throw up
4.718447854656915e-17,-4.85722573273506e-17,1.8908485888147198e-17,-8.673617379884035e-18,6.245004513516506e-18,-1.4224732503009817e-17,1.5785983631388944e-17,3.087807787238717e-17,-3.50414142147315e-17,2.5326962749261383e-17,0.010446937371127084,0.24615652949427086,0.00034589225455733624,0.002719154550540024,7.125632673155957e-15,Throw up
9.864113883005374e-18,-1.0748482713895511e-17,2.1769078914218755e-18,-8.0953762212251e-18,3.0612767223120124e-18,1.5918638956022464e-17,-7.023929368415895e-18,-7.24502157613843e-18,1.534039779736353e-17,-3.9116313673986827e-19,0.00446614920481184,0.1664493301500344,5.941614337313004e-05,0.00043518649662050514,3.181202891751501e-14,Zoom in
1.67580833905684e-17,-1.1521182331015776e-17,-1.466332296674735e-17,1.767454107599011e-17,-2.0162069079277606e-17,-2.4089744873942077e-17,1.7019928443546032e-18,1.332136707023699e-17,3.801662862918984e-17,1.5749570803709243e-17,0.007412056981394386,-0.42063634796860644,0.0006027951473962469,0.0011206039755311686,5.529761466065309e-13,Zoom in
1.3539305178355568e-18,-9.477513624848898e-18,2.030895776753335e-17,1.692413147294446e-18,5.225325592271602e-18,-1.5231718325650015e-17,3.8713950744360455e-18,-2.0139716452803906e-17,4.6118258263773654e-18,1.1296857758190426e-17,0.006127260450349575,-0.3442178325150559,0.0001566015004330882,0.0006324070776772241,1.3385926792909012e-13,Zoom in
-5.0979628681767395e-18,9.133850138816658e-18,-1.1895246692412391e-17,-2.1772549749504825e-17,2.1453927070243777e-17,-1.9612996034513288e-17,6.344131569286608e-17,-2.4923374022197392e-17,-1.6223204752374936e-17,-2.1854418076814955e-17,0.008477940451652448,0.14476922192718808,0.0005463511504953428,0.0005612383882492542,2.847682173883047e-13,Zoom in
-3.14563190310461e-17,1.5265566588595904e-17,3.122502256758253e-18,3.50414142147315e-17,3.7816971776294396e-17,-3.735437884936725e-17,-3.5425402484153454e-17,-5.854691731421724e-18,-4.985884390536673e-17,4.4398078963281407e-17,0.0023246775530230144,0.12070059228443106,5.168115267689579e-05,3.4592880974903864e-05,1.8084274605972422e-14,Zoom in
1.3877787807814457e-17,1.3246979271095618e-17,6.938893903907228e-18,-1.3877787807814457e-17,-2.3063937123782548e-17,1.7366947526540535e-17,-3.1417222043614047e-17,2.4059431845791966e-17,1.6893841124001405e-17,5.361872562110131e-18,0.007534341432499394,-0.4738182074313902,0.0006151396356846542,0.00202906976346443,4.6525512716378975e-14,Zoom in
3.091760321740942e-17,2.5998893614639742e-17,2.2287902887550115e-17,1.756682000989172e-18,-5.079006835359943e-17,2.9644008766692273e-18,-4.7759791901893105e-17,-3.952534502225637e-18,1.989442366120237e-17,5.4017971530417034e-18,0.007569693086811391,0.5017801897621146,0.0004420739915888665,0.0013526974448533294,7.239790335201919e-14,Zoom in
8.372549669177317e-18,-1.2272093350711958e-17,2.9705347456396237e-17,1.7508521033360955e-18,1.9784449560727222e-17,-2.5289687699364362e-17,-4.5206750418379067e-17,3.982964526376294e-17,6.026730423254135e-18,2.7977792259245775e-17,0.00847291600447011,-0.07404288899015478,0.0003910394476211079,0.0008652373783321496,1.3054176307403275e-13,Zoom out
1.261617073437678e-18,2.2078298785159362e-17,-1.8924256101565167e-17,-2.1447490248440524e-17,1.8924256101565167e-18,-2.2078298785159362e-17,-3.043651189668398e-17,-2.690176640479658e-17,-3.0091538478165866e-17,-1.2616170734376778e-17,0.02095891848563819,-0.4572228801831534,0.001156446540443095,0.0029362322965972507,9.43040347395874e-13,Zoom out
4.123685520036296e-17,-2.061842760018148e-17,4.758098676964957e-18,-2.0816681711721685e-17,7.93016446160826e-18,1.5860328923216522e-18,2.0122792321330962e-17,-2.8102520310824274e-17,-1.3597444103214633e-17,6.245004513516506e-18,0.01710459558997121,-0.24222022943279767,0.009140459275680102,0.005481174238504822,2.4703197271490915e-13,Zoom out
-2.723188550967365e-17,2.998125856593878e-17,1.189758459467112e-17,-1.3517750859970214e-17,1.3861422492003355e-17,2.245321329283188e-17,2.5529892665319046e-18,-3.3908934360603245e-17,-4.336808689942018e-17,-4.254982110886508e-17,0.006637916542792628,0.5481562208224731,0.002307523173599508,0.003911897606324858,3.2177785381937545e-13,Zoom out
-1.5753164538600193e-17,1.5378089192443047e-17,2.3442209134821717e-18,3.00060276925718e-18,-9.56442132700726e-18,-1.8097385452082364e-17,-1.3174521533769805e-17,1.3151079324634983e-17,1.242437084145551e-17,-2.5563729061523082e-17,0.004105348380959653,0.3486773034799184,0.00047163921034440703,0.0008158184698970377,1.573987490722519e-13,Zoom out
-1.0049432550486331e-17,-5.742532885992189e-18,-3.6369374944617196e-17,1.1485065771984378e-17,-2.808457489555555e-17,4.276990639046266e-17,1.6270509843644534e-17,-8.853071532571292e-18,-1.683878132715418e-17,-1.921654885026032e-17,0.02027183414122314,0.5846313187643869,0.0006668670796546758,0.002911222872889657,1.6827891188052027e-13,Zoom out
4.996003610813204e-18,1.4988010832439614e-17,2.886579864025407e-17,-5.967448757360216e-18,7.563394355258879e-17,3.157196726277789e-17,1.1657341758564143e-17,3.261280134836397e-18,1.0963452368173421e-17,9.436895709313831e-18,0.02413724532039177,-0.0969702124268902,0.0009606030326403601,0.0025607899214746856,2.1306464669963798e-14,Zoom out
